SVM-light Version V6.02
0 # kernel type
3 # kernel parameter -d 
1 # kernel parameter -g 
1 # kernel parameter -s 
1 # kernel parameter -r 
empty# kernel parameter -u 
4 # highest feature index 
26 # number of training documents 
21 # number of support vectors plus 1 
-0.022198715 # threshold b, each following line is a SV (starting with alpha*y)
-1.1936060253284584184446622501249e-15 1:194.74892 2:567103.88 3:778.50269 4:0.15528125 # sp1.wav
1.1936060253284584184446622501249e-15 1:58.94368 2:14582447 3:1552.8384 4:0.24512987 # mu1.wav
-2.2010149881999848117121896195168e-16 1:266.94397 2:1.9011098e+08 3:265.47989 4:0.095624998 # sp13.wav
2.2010153450508709459167849820105e-16 1:440.72577 2:505848.84 3:1157.332 4:0.12879889 # mu7.wav
-1.1936060253284584184446622501249e-15 1:216.02815 2:341281.72 3:480.13147 4:0.057942059 # sp6.wav
1.1936060253284584184446622501249e-15 1:97.211143 2:18114538 3:322.51666 4:0.068157315 # mu13.wav
-1.1936060253284584184446622501249e-15 1:182.42851 2:487788.41 3:681.50409 4:0.12209375 # sp2.wav
1.1936060253284584184446622501249e-15 1:64.740273 2:11819754 3:402.23932 4:0.056891512 # mu6.wav
-2.2780048610657323981485019269433e-16 1:131.51283 2:1.6139699e+08 3:276.1098 4:0.10320313 # sp9.wav
2.2780067025765710943263631094169e-16 1:108.95094 2:863550.12 3:443.74908 4:0.10082813 # mu5.wav
-1.1936060253284584184446622501249e-15 1:197.78958 2:539400.56 3:816.06085 4:0.13124999 # sp3.wav
1.1936060253284584184446622501249e-15 1:64.194168 2:11160257 3:490.21271 4:0.23582813 # mu12.wav
-1.1936060253284584184446622501249e-15 1:203.29463 2:594976.5 3:552.98071 4:0.13493749 # sp11.wav
1.1936060253284584184446622501249e-15 1:66.470497 2:10393895 3:484.00858 4:0.096579634 # mu2.wav
-1.1936060253284584184446622501249e-15 1:196.04192 2:772477.5 3:821.28949 4:0.18325 # sp5.wav
1.1936060253284584184446622501249e-15 1:57.297371 2:8431686 3:536.5321 4:0.092892073 # mu3.wav
-6.3379417824866689135493007809311e-17 1:260.2738 2:1.4927195e+08 3:297.18295 4:0.14317188 # sp10.wav
6.337921794442648393904000958532e-17 1:97.597626 2:930567.81 3:1193.8773 4:0.20644981 # mu8.wav
-1.1936060253284584184446622501249e-15 1:205.03673 2:7628420 3:727.94397 4:0.17279688 # sp12.wav
1.1936060253284584184446622501249e-15 1:91.900871 2:7451614.5 3:761.3288 4:0.11422054 # mu4.wav
