SVM-light Version V6.02
0 # kernel type
3 # kernel parameter -d 
1 # kernel parameter -g 
1 # kernel parameter -s 
1 # kernel parameter -r 
empty# kernel parameter -u 
3 # highest feature index 
26 # number of training documents 
21 # number of support vectors plus 1 
-0.024271709 # threshold b, each following line is a SV (starting with alpha*y)
-1.1936060269222463672976432926304e-15 1:567103.88 2:778.50269 3:0.15528125 # sp1.wav
1.1936060269222463672976432926304e-15 1:14582447 2:1552.8384 3:0.24512987 # mu1.wav
-2.1423935830777367160665491366191e-16 1:1.9011098e+08 2:265.47989 3:0.095624998 # sp13.wav
2.1423931873881358830830762274289e-16 1:505848.84 2:1157.332 3:0.12879889 # mu7.wav
-1.1936060269222463672976432926304e-15 1:341281.72 2:480.13147 3:0.057942059 # sp6.wav
1.1936060269222463672976432926304e-15 1:18114538 2:322.51666 3:0.068157315 # mu13.wav
-1.1936060269222463672976432926304e-15 1:487788.41 2:681.50409 3:0.12209375 # sp2.wav
1.1936060269222463672976432926304e-15 1:11819754 2:402.23932 3:0.056891512 # mu6.wav
-2.3416757259369425223086342603696e-16 1:1.6139699e+08 2:276.1098 3:0.10320313 # sp9.wav
2.3416784339194728677829848706438e-16 1:863550.12 2:443.74908 3:0.10082813 # mu5.wav
-1.1936060269222463672976432926304e-15 1:539400.56 2:816.06085 3:0.13124999 # sp3.wav
1.1936060269222463672976432926304e-15 1:11160257 2:490.21271 3:0.23582813 # mu12.wav
-1.1936060269222463672976432926304e-15 1:594976.5 2:552.98071 3:0.13493749 # sp11.wav
1.1936060269222463672976432926304e-15 1:10393895 2:484.00858 3:0.096579634 # mu2.wav
-1.1936060269222463672976432926304e-15 1:772477.5 2:821.28949 3:0.18325 # sp5.wav
1.1936060269222463672976432926304e-15 1:8431686 2:536.5321 3:0.092892073 # mu3.wav
-6.5691518783853582355068234481521e-17 1:1.4927195e+08 2:297.18295 3:0.14317188 # sp10.wav
6.5691347402370419024646847061533e-17 1:930567.81 2:1193.8773 3:0.20644981 # mu8.wav
-1.1936060269222463672976432926304e-15 1:7628420 2:727.94397 3:0.17279688 # sp12.wav
1.1936060269222463672976432926304e-15 1:7451614.5 2:761.3288 3:0.11422054 # mu4.wav
